digraph Tree {
node [shape=box, style="filled, rounded", color="black", fontname="helvetica"] ;
edge [fontname="helvetica"] ;
0 [label="Feature2 <= 5.378\nsquared_error = 521.672\nsamples = 21\nvalue = 11.238", fillcolor="#f4cbae"] ;
1 [label="Feature3 <= 5.773\nsquared_error = 120.952\nsamples = 13\nvalue = -4.722", fillcolor="#fae5d7"] ;
0 -> 1 [labeldistance=2.5, labelangle=45, headlabel="True"] ;
2 [label="Feature3 <= 2.536\nsquared_error = 41.502\nsamples = 8\nvalue = 2.621", fillcolor="#f7d9c4"] ;
1 -> 2 ;
3 [label="Feature1 <= 6.031\nsquared_error = 12.412\nsamples = 3\nvalue = 10.222", fillcolor="#f5cdb0"] ;
2 -> 3 ;
4 [label="squared_error = 0.0\nsamples = 1\nvalue = 5.285", fillcolor="#f6d5bd"] ;
3 -> 4 ;
5 [label="squared_error = 0.335\nsamples = 2\nvalue = 12.691", fillcolor="#f4c9aa"] ;
3 -> 5 ;
6 [label="Feature1 <= 1.897\nsquared_error = 3.494\nsamples = 5\nvalue = -1.939", fillcolor="#f9e1d0"] ;
2 -> 6 ;
7 [label="squared_error = 0.01\nsamples = 2\nvalue = 0.276", fillcolor="#f8ddca"] ;
6 -> 7 ;
8 [label="squared_error = 0.361\nsamples = 3\nvalue = -3.417", fillcolor="#f9e3d4"] ;
6 -> 8 ;
9 [label="Feature2 <= 0.682\nsquared_error = 23.754\nsamples = 5\nvalue = -16.471", fillcolor="#fef9f5"] ;
1 -> 9 ;
10 [label="squared_error = 0.0\nsamples = 1\nvalue = -7.224", fillcolor="#fbeadd"] ;
9 -> 10 ;
11 [label="Feature3 <= 8.459\nsquared_error = 2.975\nsamples = 4\nvalue = -18.783", fillcolor="#fffdfb"] ;
9 -> 11 ;
12 [label="squared_error = 1.586\nsamples = 2\nvalue = -17.315", fillcolor="#fefaf7"] ;
11 -> 12 ;
13 [label="squared_error = 0.056\nsamples = 2\nvalue = -20.25", fillcolor="#ffffff"] ;
11 -> 13 ;
14 [label="Feature3 <= 5.367\nsquared_error = 86.36\nsamples = 8\nvalue = 37.172", fillcolor="#eca16b"] ;
0 -> 14 [labeldistance=2.5, labelangle=-45, headlabel="False"] ;
15 [label="Feature2 <= 9.156\nsquared_error = 58.624\nsamples = 5\nvalue = 42.197", fillcolor="#ea985e"] ;
14 -> 15 ;
16 [label="Feature3 <= 1.667\nsquared_error = 10.48\nsamples = 4\nvalue = 38.653", fillcolor="#eb9e67"] ;
15 -> 16 ;
17 [label="squared_error = 13.032\nsamples = 2\nvalue = 36.853", fillcolor="#eca16b"] ;
16 -> 17 ;
18 [label="squared_error = 1.452\nsamples = 2\nvalue = 40.452", fillcolor="#ea9b62"] ;
16 -> 18 ;
19 [label="squared_error = -0.0\nsamples = 1\nvalue = 56.373", fillcolor="#e58139"] ;
15 -> 19 ;
20 [label="Feature3 <= 6.666\nsquared_error = 20.362\nsamples = 3\nvalue = 28.797", fillcolor="#eeae80"] ;
14 -> 20 ;
21 [label="squared_error = 0.0\nsamples = 1\nvalue = 22.448", fillcolor="#f1b991"] ;
20 -> 21 ;
22 [label="Feature1 <= 6.617\nsquared_error = 0.315\nsamples = 2\nvalue = 31.971", fillcolor="#eda978"] ;
20 -> 22 ;
23 [label="squared_error = 0.0\nsamples = 1\nvalue = 32.532", fillcolor="#eda877"] ;
22 -> 23 ;
24 [label="squared_error = -0.0\nsamples = 1\nvalue = 31.41", fillcolor="#edaa7a"] ;
22 -> 24 ;
}